51 50
4.4375 5.5 4.3125 3.3125 4.8125 5.0625 -5.1875 5.5625 -1.5625 -6.0625 -3.3125 3.6875 4.875 -0.0625 5.625 4.625 4.5625 -2.4375 1.1875 -2.1875 6.25 -0.5 0.3125 -2.6875 6.1875 -4.25 0.125 -3.8125 -5.75 -4.0625 -4.9375 -5.3125 3.75 -1.4375 -4.125 1.5 -0.3125 -5.9375 2.1875 1.0625 4.5 0.4375 -1.0 3.25 -6.0 -3.0 -0.375 0.375 -0.25 0.625 0.9375
0.01953125 0.00390625 0.00390625 0.00390625 0.09765625 0.00390625 0.02734375 0.01171875 0.00390625 0.0078125 0.01953125 0.015625 0.03515625 0.00390625 0.01171875 0.0078125 0.0390625 0.015625 0.00390625 0.046875 0.00390625 0.0234375 0.0078125 0.0546875 0.046875 0.01171875 0.0078125 0.015625 0.0078125 0.02734375 0.01171875 0.046875 0.00390625 0.01953125 0.00390625 0.0078125 0.0078125 0.0078125 0.05859375 0.00390625 0.0234375 0.0078125 0.0078125 0.01171875 0.0078125 0.0390625 0.04296875 0.0078125 0.01171875 0.01953125 0.05859375
-12.5 -10.5 4.5 18.5 24.0 -15.5 -17.25 -6.25 -16.5 11.25 2.0 16.0 0.0 -14.75 -9.25 -14.75 -15.25 -22.5 9.25 21.75 24.75 -19.0 21.75 11.75 20.75 3.0 -13.0 16.0 8.25 3.75 11.75 3.0 -2.5 -25.0 10.75 5.5 18.25 22.5 -19.5 -20.75 22.5 1.5 -10.25 19.5 -1.75 -15.75 -18.5 -19.0 -1.5 -9.75
