62 61
1.3125 2.6875 -1.625 -3.9375 2.875 -1.4375 0.3125 -0.9375 -1.1875 -6.1875 2.0625 0.625 4.1875 -4.9375 -3.8125 -3.375 2.8125 -2.4375 -4.6875 0.6875 -6.0625 0.5 3.4375 -1.0625 3.6875 -0.5625 4.6875 3.8125 -3.6875 5.6875 1.6875 -0.625 2.5 -5.25 -1.375 -4.5625 -4.0 0.25 -5.875 -0.375 -2.125 5.5625 -0.25 -5.125 2.5625 -3.5 3.875 6.1875 -4.8125 0.1875 -4.375 2.375 5.875 1.75 -3.25 1.8125 -0.1875 1.0 -5.5625 2.625 4.375 -1.125
0.015625 0.00390625 0.00390625 0.0078125 0.00390625 0.00390625 0.01171875 0.00390625 0.015625 0.0078125 0.01953125 0.03125 0.0625 0.00390625 0.015625 0.0078125 0.03515625 0.01171875 0.015625 0.01953125 0.0078125 0.00390625 0.0234375 0.0390625 0.02734375 0.015625 0.01171875 0.0078125 0.01171875 0.00390625 0.01171875 0.0234375 0.00390625 0.01953125 0.04296875 0.015625 0.01171875 0.03125 0.00390625 0.0078125 0.03515625 0.015625 0.01171875 0.0078125 0.0078125 0.01171875 0.01953125 0.0625 0.0078125 0.00390625 0.01953125 0.00390625 0.0078125 0.0078125 0.00390625 0.01171875 0.046875 0.0234375 0.0234375 0.0078125 0.01171875 0.0234375
1.375 5.6875 2.6875 3.9375 4.5 -5.0 1.3125 -2.3125 3.1875 4.375 5.1875 2.6875 3.6875 -5.6875 1.1875 -1.9375 3.5625 2.875 -2.0 1.375 0.0 3.75 -0.9375 -1.25 0.875 5.5 -4.1875 4.3125 -6.0 -2.3125 -5.6875 -3.0625 -1.75 1.0 -4.8125 2.625 5.4375 -4.8125 1.9375 4.125 5.3125 5.3125 -5.0625 -5.875 -1.5 3.0 4.75 3.125 -5.0625 0.0 -2.0 2.875 -2.5 -3.875 2.3125 2.0625 5.625 6.0 1.4375 5.0625 -1.625
